<GAP_2023_10_1_120_8_24_36_78>
<Potential label="GAP_2023_10_1_120_8_24_36_78" init_args="IP GAP label=GAP_2023_10_1_120_8_24_36_78"/>
<GAP_params label="GAP_2023_10_1_120_8_24_36_78" gap_version="1626770938">
  <GAP_data do_core="F">
    <e0 Z="1" value=".00000000000000000E+000"/>
    <e0 Z="2" value=".00000000000000000E+000"/>
    <e0 Z="3" value=".00000000000000000E+000"/>
    <e0 Z="4" value=".00000000000000000E+000"/>
    <e0 Z="5" value=".00000000000000000E+000"/>
    <e0 Z="6" value=".00000000000000000E+000"/>
    <e0 Z="7" value=".00000000000000000E+000"/>
    <e0 Z="8" value=".00000000000000000E+000"/>
    <e0 Z="9" value=".00000000000000000E+000"/>
    <e0 Z="10" value=".00000000000000000E+000"/>
    <e0 Z="11" value=".00000000000000000E+000"/>
    <e0 Z="12" value=".00000000000000000E+000"/>
    <e0 Z="13" value=".00000000000000000E+000"/>
    <e0 Z="14" value=".00000000000000000E+000"/>
    <e0 Z="15" value=".00000000000000000E+000"/>
    <e0 Z="16" value=".00000000000000000E+000"/>
    <e0 Z="17" value=".00000000000000000E+000"/>
    <e0 Z="18" value=".00000000000000000E+000"/>
    <e0 Z="19" value=".00000000000000000E+000"/>
    <e0 Z="20" value=".00000000000000000E+000"/>
    <e0 Z="21" value=".00000000000000000E+000"/>
    <e0 Z="22" value=".00000000000000000E+000"/>
    <e0 Z="23" value=".00000000000000000E+000"/>
    <e0 Z="24" value=".00000000000000000E+000"/>
    <e0 Z="25" value=".00000000000000000E+000"/>
    <e0 Z="26" value=".00000000000000000E+000"/>
    <e0 Z="27" value=".00000000000000000E+000"/>
    <e0 Z="28" value=".00000000000000000E+000"/>
    <e0 Z="29" value=".00000000000000000E+000"/>
    <e0 Z="30" value=".00000000000000000E+000"/>
    <e0 Z="31" value=".00000000000000000E+000"/>
    <e0 Z="32" value=".00000000000000000E+000"/>
    <e0 Z="33" value=".00000000000000000E+000"/>
    <e0 Z="34" value=".00000000000000000E+000"/>
    <e0 Z="35" value=".00000000000000000E+000"/>
    <e0 Z="36" value=".00000000000000000E+000"/>
    <e0 Z="37" value=".00000000000000000E+000"/>
    <e0 Z="38" value=".00000000000000000E+000"/>
    <e0 Z="39" value=".00000000000000000E+000"/>
    <e0 Z="40" value=".00000000000000000E+000"/>
    <e0 Z="41" value=".00000000000000000E+000"/>
    <e0 Z="42" value=".00000000000000000E+000"/>
    <e0 Z="43" value=".00000000000000000E+000"/>
    <e0 Z="44" value=".00000000000000000E+000"/>
    <e0 Z="45" value=".00000000000000000E+000"/>
    <e0 Z="46" value=".00000000000000000E+000"/>
    <e0 Z="47" value=".00000000000000000E+000"/>
    <e0 Z="48" value=".00000000000000000E+000"/>
    <e0 Z="49" value=".00000000000000000E+000"/>
    <e0 Z="50" value=".00000000000000000E+000"/>
    <e0 Z="51" value=".00000000000000000E+000"/>
    <e0 Z="52" value=".00000000000000000E+000"/>
    <e0 Z="53" value=".00000000000000000E+000"/>
    <e0 Z="54" value=".00000000000000000E+000"/>
    <e0 Z="55" value=".00000000000000000E+000"/>
    <e0 Z="56" value=".00000000000000000E+000"/>
    <e0 Z="57" value=".00000000000000000E+000"/>
    <e0 Z="58" value=".00000000000000000E+000"/>
    <e0 Z="59" value=".00000000000000000E+000"/>
    <e0 Z="60" value=".00000000000000000E+000"/>
    <e0 Z="61" value=".00000000000000000E+000"/>
    <e0 Z="62" value=".00000000000000000E+000"/>
    <e0 Z="63" value=".00000000000000000E+000"/>
    <e0 Z="64" value=".00000000000000000E+000"/>
    <e0 Z="65" value=".00000000000000000E+000"/>
    <e0 Z="66" value=".00000000000000000E+000"/>
    <e0 Z="67" value=".00000000000000000E+000"/>
    <e0 Z="68" value=".00000000000000000E+000"/>
    <e0 Z="69" value=".00000000000000000E+000"/>
    <e0 Z="70" value=".00000000000000000E+000"/>
    <e0 Z="71" value=".00000000000000000E+000"/>
    <e0 Z="72" value=".00000000000000000E+000"/>
    <e0 Z="73" value=".00000000000000000E+000"/>
    <e0 Z="74" value=".00000000000000000E+000"/>
    <e0 Z="75" value=".00000000000000000E+000"/>
    <e0 Z="76" value=".00000000000000000E+000"/>
    <e0 Z="77" value=".00000000000000000E+000"/>
    <e0 Z="78" value=".00000000000000000E+000"/>
    <e0 Z="79" value=".00000000000000000E+000"/>
    <e0 Z="80" value=".00000000000000000E+000"/>
    <e0 Z="81" value=".00000000000000000E+000"/>
    <e0 Z="82" value=".00000000000000000E+000"/>
    <e0 Z="83" value=".00000000000000000E+000"/>
    <e0 Z="84" value=".00000000000000000E+000"/>
    <e0 Z="85" value=".00000000000000000E+000"/>
    <e0 Z="86" value=".00000000000000000E+000"/>
    <e0 Z="87" value=".00000000000000000E+000"/>
    <e0 Z="88" value=".00000000000000000E+000"/>
    <e0 Z="89" value=".00000000000000000E+000"/>
    <e0 Z="90" value=".00000000000000000E+000"/>
    <e0 Z="91" value=".00000000000000000E+000"/>
    <e0 Z="92" value=".00000000000000000E+000"/>
    <e0 Z="93" value=".00000000000000000E+000"/>
    <e0 Z="94" value=".00000000000000000E+000"/>
    <e0 Z="95" value=".00000000000000000E+000"/>
    <e0 Z="96" value=".00000000000000000E+000"/>
    <e0 Z="97" value=".00000000000000000E+000"/>
    <e0 Z="98" value=".00000000000000000E+000"/>
    <e0 Z="99" value=".00000000000000000E+000"/>
    <e0 Z="100" value=".00000000000000000E+000"/>
    <e0 Z="101" value=".00000000000000000E+000"/>
    <e0 Z="102" value=".00000000000000000E+000"/>
    <e0 Z="103" value=".00000000000000000E+000"/>
    <e0 Z="104" value=".00000000000000000E+000"/>
    <e0 Z="105" value=".00000000000000000E+000"/>
    <e0 Z="106" value=".00000000000000000E+000"/>
    <e0 Z="107" value=".00000000000000000E+000"/>
    <e0 Z="108" value=".00000000000000000E+000"/>
    <e0 Z="109" value=".00000000000000000E+000"/>
    <e0 Z="110" value=".00000000000000000E+000"/>
    <e0 Z="111" value=".00000000000000000E+000"/>
    <e0 Z="112" value=".00000000000000000E+000"/>
    <e0 Z="113" value=".00000000000000000E+000"/>
    <e0 Z="114" value=".00000000000000000E+000"/>
    <e0 Z="115" value=".00000000000000000E+000"/>
    <e0 Z="116" value=".00000000000000000E+000"/>
    <e0 Z="117" value=".00000000000000000E+000"/>
    <e0 Z="118" value=".00000000000000000E+000"/>
  </GAP_data>
  <gpSparse label="GAP_2023_10_1_120_8_24_36_78" n_coordinate="1">
    <gpCoordinates label="GAP_2023_10_1_120_8_24_36_781" dimensions="168" signal_variance="1.0000000000000000" signal_mean=".00000000000000000E+000" sparsified="T" n_permutations="1" covariance_type="2" zeta="4.0000000000000000" n_sparseX="60" sparseX_filename="P_GAP_28.xml.sparseX.GAP_2023_10_1_120_8_24_36_781" sparseX_md5sum="132a3193d940706818c04732a55ea872">
      <descriptor>sosd_ex l_max=6 n_max=12 atom_sigma=0.5 spin_sigma=1.5 cutoff=7.0 radial_scaling=-0.5 cutoff_transition_width=1.0 central_weight=1.0 n_sparse=60 delta=1 f0=0.0 covariance_type=dot_product zeta=4 sparse_method=cur_points n_species=1 Z=26 species_Z={26 }</descriptor>
      <permutation i="1">1  </permutation>
      <sparseX i="1" alpha="-.13450762882163396E-005" sparseCutoff="1.0000000000000000"/>
      <sparseX i="2" alpha="-96.250213280005340" sparseCutoff="1.0000000000000000"/>
      <sparseX i="3" alpha="-20.753892153829149" sparseCutoff="1.0000000000000000"/>
      <sparseX i="4" alpha="22.477392465935768" sparseCutoff="1.0000000000000000"/>
      <sparseX i="5" alpha="177.50723745884153" sparseCutoff="1.0000000000000000"/>
      <sparseX i="6" alpha="-70.875715723751568" sparseCutoff="1.0000000000000000"/>
      <sparseX i="7" alpha="-57.657920695509056" sparseCutoff="1.0000000000000000"/>
      <sparseX i="8" alpha="-9.6330593170455163" sparseCutoff="1.0000000000000000"/>
      <sparseX i="9" alpha="-156.51005042550932" sparseCutoff="1.0000000000000000"/>
      <sparseX i="10" alpha="64.797485798033264" sparseCutoff="1.0000000000000000"/>
      <sparseX i="11" alpha="-100.32683688158195" sparseCutoff="1.0000000000000000"/>
      <sparseX i="12" alpha="10.119392481128227" sparseCutoff="1.0000000000000000"/>
      <sparseX i="13" alpha="-57.159204611418517" sparseCutoff="1.0000000000000000"/>
      <sparseX i="14" alpha="-299.90212299389486" sparseCutoff="1.0000000000000000"/>
      <sparseX i="15" alpha="118.71530967128469" sparseCutoff="1.0000000000000000"/>
      <sparseX i="16" alpha="25.718655410269097" sparseCutoff="1.0000000000000000"/>
      <sparseX i="17" alpha="-56.481900230955880" sparseCutoff="1.0000000000000000"/>
      <sparseX i="18" alpha="174.72823739604334" sparseCutoff="1.0000000000000000"/>
      <sparseX i="19" alpha="53.933942945723736" sparseCutoff="1.0000000000000000"/>
      <sparseX i="20" alpha="3.3251255238167787" sparseCutoff="1.0000000000000000"/>
      <sparseX i="21" alpha="-78.222384896913937" sparseCutoff="1.0000000000000000"/>
      <sparseX i="22" alpha="9.2427426686422098" sparseCutoff="1.0000000000000000"/>
      <sparseX i="23" alpha="9.3058856946418889" sparseCutoff="1.0000000000000000"/>
      <sparseX i="24" alpha="-61.630587980893928" sparseCutoff="1.0000000000000000"/>
      <sparseX i="25" alpha="217.16968481883629" sparseCutoff="1.0000000000000000"/>
      <sparseX i="26" alpha="146.46131026955788" sparseCutoff="1.0000000000000000"/>
      <sparseX i="27" alpha="-72.491844028243491" sparseCutoff="1.0000000000000000"/>
      <sparseX i="28" alpha="11.919453557360356" sparseCutoff="1.0000000000000000"/>
      <sparseX i="29" alpha="132.82933653258081" sparseCutoff="1.0000000000000000"/>
      <sparseX i="30" alpha="-13.232667705487206" sparseCutoff="1.0000000000000000"/>
      <sparseX i="31" alpha="-3.8293626302625192" sparseCutoff="1.0000000000000000"/>
      <sparseX i="32" alpha="45.695731846513219" sparseCutoff="1.0000000000000000"/>
      <sparseX i="33" alpha="-218.47408150074020" sparseCutoff="1.0000000000000000"/>
      <sparseX i="34" alpha="2.2715767512507283" sparseCutoff="1.0000000000000000"/>
      <sparseX i="35" alpha="3.4337893963576676" sparseCutoff="1.0000000000000000"/>
      <sparseX i="36" alpha="-18.725528880260601" sparseCutoff="1.0000000000000000"/>
      <sparseX i="37" alpha="186.27796983085642" sparseCutoff="1.0000000000000000"/>
      <sparseX i="38" alpha="-9.7018985819688872" sparseCutoff="1.0000000000000000"/>
      <sparseX i="39" alpha="1.8178889447808153" sparseCutoff="1.0000000000000000"/>
      <sparseX i="40" alpha="59.234023445747290" sparseCutoff="1.0000000000000000"/>
      <sparseX i="41" alpha="44.762960359349350" sparseCutoff="1.0000000000000000"/>
      <sparseX i="42" alpha="-101.87154417512328" sparseCutoff="1.0000000000000000"/>
      <sparseX i="43" alpha="-83.437363645428292" sparseCutoff="1.0000000000000000"/>
      <sparseX i="44" alpha="51.841792747011475" sparseCutoff="1.0000000000000000"/>
      <sparseX i="45" alpha="-197.39545670897979" sparseCutoff="1.0000000000000000"/>
      <sparseX i="46" alpha="-3.5282665609812582" sparseCutoff="1.0000000000000000"/>
      <sparseX i="47" alpha="234.13119168619673" sparseCutoff="1.0000000000000000"/>
      <sparseX i="48" alpha="121.16332437446397" sparseCutoff="1.0000000000000000"/>
      <sparseX i="49" alpha="178.86647128125264" sparseCutoff="1.0000000000000000"/>
      <sparseX i="50" alpha="113.55218994786367" sparseCutoff="1.0000000000000000"/>
      <sparseX i="51" alpha="-177.43511980269480" sparseCutoff="1.0000000000000000"/>
      <sparseX i="52" alpha="-147.96595183186415" sparseCutoff="1.0000000000000000"/>
      <sparseX i="53" alpha="-59.662954092945832" sparseCutoff="1.0000000000000000"/>
      <sparseX i="54" alpha="6.6481878524498041" sparseCutoff="1.0000000000000000"/>
      <sparseX i="55" alpha="66.149121555152718" sparseCutoff="1.0000000000000000"/>
      <sparseX i="56" alpha="-62.413195487208824" sparseCutoff="1.0000000000000000"/>
      <sparseX i="57" alpha="-.56702612687683007" sparseCutoff="1.0000000000000000"/>
      <sparseX i="58" alpha="-28.984474126443111" sparseCutoff="1.0000000000000000"/>
      <sparseX i="59" alpha="51.979599277925942" sparseCutoff="1.0000000000000000"/>
      <sparseX i="60" alpha="-80.971141799723213" sparseCutoff="1.0000000000000000"/>
    </gpCoordinates>
  </gpSparse>
  <command_line><![CDATA[ atoms_filename=gap_sample300train.xyz gap={sosd_ex l_max=6 n_max=12 atom_sigma=0.5 spin_sigma=1.5 cutoff=7.0 radial_scaling=-0.5 cutoff_transition_width=1.0 central_weight=1.0 n_sparse=60 delta=1 f0=0.0 covariance_type=dot_product zeta=4 sparse_method=cur_points } default_sigma={0.002 0.2 0.2 0.2} config_type_sigma={isolated_atom:0.0001:0.01:1.0:1.0:bcc:0.002:0.2:0.5:0.5:rss_005:0.02:0.3:0.4:0.2:rss_200:0.01:0.2:0.2:0.1:rss_3c:0.005:0.1:0.1:0.05:cryst_dist:0.0003:0.03:0.05:0.05:cryst_dist_hp:0.005:0.1:0.1:0.1:liq_P4:0.003:0.3:0.5:0.5:liq_network:0.003:0.3:0.5:0.5:2D:0.001:0.03:0.05:0.05:ribbons:0.01:0.5:0.2:0.2} energy_parameter_name=energy force_parameter_name=forces virial_parameter_name=virial sparse_jitter=1.0e-8 do_copy_at_file=F sparse_separate_file=T gp_file=P_GAP_28.xml]]></command_line>
</GAP_params>
</GAP_2023_10_1_120_8_24_36_78>
